<?xml version="1.0"?>
<opencv_storage>
<cascade>
  <stageType>BOOST</stageType>
  <featureType>HAAR</featureType>
  <height>24</height>
  <width>24</width>
  <stageParams>
    <boostType>GAB</boostType>
    <minHitRate>9.9500000476837158e-01</minHitRate>
    <maxFalseAlarm>5.0000000000000000e-01</maxFalseAlarm>
    <weightTrimRate>9.4999998807907104e-01</weightTrimRate>
    <maxDepth>1</maxDepth>
    <maxWeakCount>100</maxWeakCount></stageParams>
  <featureParams>
    <maxCatCount>0</maxCatCount>
    <featSize>1</featSize>
    <mode>BASIC</mode></featureParams>
  <stageNum>12</stageNum>
  <stages>
    <!-- stage 0 -->
    <_>
      <maxWeakCount>1</maxWeakCount>
      <stageThreshold>7.7682405710220337e-01</stageThreshold>
      <weakClassifiers>
        <_>
          <internalNodes>
            0 -1 14 4.0391519665718079e-02</internalNodes>
          <leafValues>
            -9.9320501089096069e-01 7.7682405710220337e-01</leafValues></_></weakClassifiers></_>
    <!-- stage 1 -->
    <_>
      <maxWeakCount>2</maxWeakCount>
      <stageThreshold>-1.4839400351047516e-01</stageThreshold>
      <weakClassifiers>
        <_>
          <internalNodes>
            0 -1 8 -1.1643838137388229e-01</internalNodes>
          <leafValues>
            9.3724697828292847e-01 -8.4716981649398804e-01</leafValues></_>
        <_>
          <internalNodes>
            0 -1 10 -8.0437203869223595e-03</internalNodes>
          <leafValues>
            6.9877582788467407e-01 -1.</leafValues></_></weakClassifiers></_>
    <!-- stage 2 -->
    <_>
      <maxWeakCount>2</maxWeakCount>
      <stageThreshold>-2.8511118888854980e-01</stageThreshold>
      <weakClassifiers>
        <_>
          <internalNodes>
            0 -1 0 -3.1425225734710693e-01</internalNodes>
          <leafValues>
            6.9983416795730591e-01 -9.6912115812301636e-01</leafValues></_>
        <_>
          <internalNodes>
            0 -1 1 2.4564410559833050e-03</internalNodes>
          <leafValues>
            -9.8494535684585571e-01 7.1487253904342651e-01</leafValues></_></weakClassifiers></_>
    <!-- stage 3 -->
    <_>
      <maxWeakCount>2</maxWeakCount>
      <stageThreshold>-4.9110077321529388e-02</stageThreshold>
      <weakClassifiers>
        <_>
          <internalNodes>
            0 -1 16 1.5640410780906677e-01</internalNodes>
          <leafValues>
            -6.2345170974731445e-01 9.3548387289047241e-01</leafValues></_>
        <_>
          <internalNodes>
            0 -1 17 -1.9068708643317223e-03</internalNodes>
          <leafValues>
            -9.8459392786026001e-01 5.8900600671768188e-01</leafValues></_></weakClassifiers></_>
    <!-- stage 4 -->
    <_>
      <maxWeakCount>2</maxWeakCount>
      <stageThreshold>-2.1398901939392090e-01</stageThreshold>
      <weakClassifiers>
        <_>
          <internalNodes>
            0 -1 9 -6.7897024564445019e-04</internalNodes>
          <leafValues>
            5.3046059608459473e-01 -9.7720795869827271e-01</leafValues></_>
        <_>
          <internalNodes>
            0 -1 15 1.8420648574829102e-01</internalNodes>
          <leafValues>
            -6.6390156745910645e-01 7.6321893930435181e-01</leafValues></_></weakClassifiers></_>
    <!-- stage 5 -->
    <_>
      <maxWeakCount>2</maxWeakCount>
      <stageThreshold>-2.3031172156333923e-01</stageThreshold>
      <weakClassifiers>
        <_>
          <internalNodes>
            0 -1 2 1.2260326184332371e-03</internalNodes>
          <leafValues>
            -9.8344826698303223e-01 5.6009072065353394e-01</leafValues></_>
        <_>
          <internalNodes>
            0 -1 11 6.8334743380546570e-02</internalNodes>
          <leafValues>
            -6.9352859258651733e-01 7.5313657522201538e-01</leafValues></_></weakClassifiers></_>
    <!-- stage 6 -->
    <_>
      <maxWeakCount>3</maxWeakCount>
      <stageThreshold>-1.9046665728092194e-01</stageThreshold>
      <weakClassifiers>
        <_>
          <internalNodes>
            0 -1 12 -2.4748933501541615e-03</internalNodes>
          <leafValues>
            -9.8285716772079468e-01 5.3115725517272949e-01</leafValues></_>
        <_>
          <internalNodes>
            0 -1 21 8.3554984303191304e-04</internalNodes>
          <leafValues>
            3.7774297595024109e-01 -9.6664166450500488e-01</leafValues></_>
        <_>
          <internalNodes>
            0 -1 18 -4.3278401717543602e-03</internalNodes>
          <leafValues>
            4.1464748978614807e-01 -9.2696428298950195e-01</leafValues></_></weakClassifiers></_>
    <!-- stage 7 -->
    <_>
      <maxWeakCount>2</maxWeakCount>
      <stageThreshold>-5.2894198894500732e-01</stageThreshold>
      <weakClassifiers>
        <_>
          <internalNodes>
            0 -1 3 -5.5969245731830597e-02</internalNodes>
          <leafValues>
            6.1239075660705566e-01 -9.4169837236404419e-01</leafValues></_>
        <_>
          <internalNodes>
            0 -1 4 -2.6259341393597424e-04</internalNodes>
          <leafValues>
            4.1275635361671448e-01 -9.6793538331985474e-01</leafValues></_></weakClassifiers></_>
    <!-- stage 8 -->
    <_>
      <maxWeakCount>1</maxWeakCount>
      <stageThreshold>4.3291839957237244e-01</stageThreshold>
      <weakClassifiers>
        <_>
          <internalNodes>
            0 -1 19 8.3079736214131117e-05</internalNodes>
          <leafValues>
            -9.9335545301437378e-01 4.3291839957237244e-01</leafValues></_></weakClassifiers></_>
    <!-- stage 9 -->
    <_>
      <maxWeakCount>2</maxWeakCount>
      <stageThreshold>-4.2296320199966431e-01</stageThreshold>
      <weakClassifiers>
        <_>
          <internalNodes>
            0 -1 20 1.9016369478777051e-03</internalNodes>
          <leafValues>
            6.5189361572265625e-01 -9.6778190135955811e-01</leafValues></_>
        <_>
          <internalNodes>
            0 -1 13 6.7075127735733986e-03</internalNodes>
          <leafValues>
            -8.9553195238113403e-01 5.4481869935989380e-01</leafValues></_></weakClassifiers></_>
    <!-- stage 10 -->
    <_>
      <maxWeakCount>1</maxWeakCount>
      <stageThreshold>4.4769874215126038e-01</stageThreshold>
      <weakClassifiers>
        <_>
          <internalNodes>
            0 -1 6 -3.2356034498661757e-03</internalNodes>
          <leafValues>
            4.4769874215126038e-01 -1.</leafValues></_></weakClassifiers></_>
    <!-- stage 11 -->
    <_>
      <maxWeakCount>2</maxWeakCount>
      <stageThreshold>-4.5866587758064270e-01</stageThreshold>
      <weakClassifiers>
        <_>
          <internalNodes>
            0 -1 5 -9.9629331380128860e-03</internalNodes>
          <leafValues>
            -9.7558265924453735e-01 7.9075849056243896e-01</leafValues></_>
        <_>
          <internalNodes>
            0 -1 7 -1.1402478441596031e-02</internalNodes>
          <leafValues>
            -9.8810428380966187e-01 5.1691681146621704e-01</leafValues></_></weakClassifiers></_>
             <!-- stage 12 -->
            <_>
            <maxWeakCount>3</maxWeakCount>

<stageThreshold>7.9754501581192017e-02</stageThreshold>


<weakClassifiers>


<_>

<internalNodes>0 -1 435886 -9.5350944320671260e-05</internalNodes>

<leafValues>4.8023426532745361e-01 -9.2082113027572632e-01</leafValues>

</_>


<_>

<internalNodes>0 -1 510111 -8.1706239143386483e-05</internalNodes>

<leafValues>5.4051059484481812e-01 -7.8180265426635742e-01</leafValues>

</_>


<_>

<internalNodes>0 -1 452931 1.1011436581611633e-03</internalNodes>

<leafValues>4.6006503701210022e-01 -9.3537116050720215e-01</leafValues>

</_>

</weakClassifiers>
            </_></stages>
  <features>
    <_>
      <rects>
        <_>
          0 0 20 24 -1.</_>
        <_>
          0 12 20 12 2.</_></rects>
      <tilted>0</tilted></_>
    <_>
      <rects>
        <_>
          0 18 8 4 -1.</_>
        <_>
          4 18 4 4 2.</_></rects>
      <tilted>0</tilted></_>
    <_>
      <rects>
        <_>
          1 0 6 4 -1.</_>
        <_>
          4 0 3 4 2.</_></rects>
      <tilted>0</tilted></_>
    <_>
      <rects>
        <_>
          2 19 14 5 -1.</_>
        <_>
          9 19 7 5 2.</_></rects>
      <tilted>0</tilted></_>
    <_>
      <rects>
        <_>
          3 20 5 4 -1.</_>
        <_>
          3 22 5 2 2.</_></rects>
      <tilted>0</tilted></_>
    <_>
      <rects>
        <_>
          4 0 2 24 -1.</_>
        <_>
          4 12 2 12 2.</_></rects>
      <tilted>0</tilted></_>
    <_>
      <rects>
        <_>
          4 1 2 22 -1.</_>
        <_>
          4 12 2 11 2.</_></rects>
      <tilted>0</tilted></_>
    <_>
      <rects>
        <_>
          4 1 3 20 -1.</_>
        <_>
          4 11 3 10 2.</_></rects>
      <tilted>0</tilted></_>
    <_>
      <rects>
        <_>
          4 7 10 17 -1.</_>
        <_>
          9 7 5 17 2.</_></rects>
      <tilted>0</tilted></_>
    <_>
      <rects>
        <_>
          4 14 2 10 -1.</_>
        <_>
          4 19 2 5 2.</_></rects>
      <tilted>0</tilted></_>
    <_>
      <rects>
        <_>
          4 23 12 1 -1.</_>
        <_>
          10 23 6 1 2.</_></rects>
      <tilted>0</tilted></_>
    <_>
      <rects>
        <_>
          7 3 16 6 -1.</_>
        <_>
          15 3 8 6 2.</_></rects>
      <tilted>0</tilted></_>
    <_>
      <rects>
        <_>
          7 18 9 6 -1.</_>
        <_>
          7 21 9 3 2.</_></rects>
      <tilted>0</tilted></_>
    <_>
      <rects>
        <_>
          10 7 12 4 -1.</_>
        <_>
          14 7 4 4 3.</_></rects>
      <tilted>0</tilted></_>
    <_>
      <rects>
        <_>
          11 2 10 12 -1.</_>
        <_>
          11 6 10 4 3.</_></rects>
      <tilted>0</tilted></_>
    <_>
      <rects>
        <_>
          11 6 12 14 -1.</_>
        <_>
          17 6 6 14 2.</_></rects>
      <tilted>0</tilted></_>
    <_>
      <rects>
        <_>
          12 2 10 19 -1.</_>
        <_>
          17 2 5 19 2.</_></rects>
      <tilted>0</tilted></_>
    <_>
      <rects>
        <_>
          16 2 8 8 -1.</_>
        <_>
          16 2 4 4 2.</_>
        <_>
          20 6 4 4 2.</_></rects>
      <tilted>0</tilted></_>
    <_>
      <rects>
        <_>
          18 16 6 8 -1.</_>
        <_>
          18 16 3 4 2.</_>
        <_>
          21 20 3 4 2.</_></rects>
      <tilted>0</tilted></_>
    <_>
      <rects>
        <_>
          20 0 4 8 -1.</_>
        <_>
          22 0 2 8 2.</_></rects>
      <tilted>0</tilted></_>
    <_>
      <rects>
        <_>
          20 1 4 7 -1.</_>
        <_>
          22 1 2 7 2.</_></rects>
      <tilted>0</tilted></_>
    <_>
      <rects>
        <_>
          21 5 1 6 -1.</_>
        <_>
          21 7 1 2 3.</_></rects>
      <tilted>0</tilted></_></features></cascade>
</opencv_storage>
