<?xml version="1.0"?>
<opencv_storage>
<cascade>
  <stageType>BOOST</stageType>
  <featureType>HAAR</featureType>
  <height>24</height>
  <width>24</width>
  <stageParams>
    <boostType>GAB</boostType>
    <minHitRate>9.9900001287460327e-01</minHitRate>
    <maxFalseAlarm>5.0000000000000000e-01</maxFalseAlarm>
    <weightTrimRate>9.4999998807907104e-01</weightTrimRate>
    <maxDepth>1</maxDepth>
    <maxWeakCount>100</maxWeakCount></stageParams>
  <featureParams>
    <maxCatCount>0</maxCatCount>
    <featSize>1</featSize>
    <mode>BASIC</mode></featureParams>
  <stageNum>9</stageNum>
  <stages>
    <!-- stage 0 -->
    <_>
      <maxWeakCount>2</maxWeakCount>
      <stageThreshold>-3.1094548106193542e-01</stageThreshold>
      <weakClassifiers>
        <_>
          <internalNodes>
            0 -1 21 8.0116793513298035e-02</internalNodes>
          <leafValues>
            -8.8451445102691650e-01 8.6082476377487183e-01</leafValues></_>
        <_>
          <internalNodes>
            0 -1 18 2.3798093199729919e-02</internalNodes>
          <leafValues>
            -1. 5.7356894016265869e-01</leafValues></_></weakClassifiers></_>
    <!-- stage 1 -->
    <_>
      <maxWeakCount>2</maxWeakCount>
      <stageThreshold>-6.8601377308368683e-02</stageThreshold>
      <weakClassifiers>
        <_>
          <internalNodes>
            0 -1 14 4.8396371304988861e-02</internalNodes>
          <leafValues>
            -9.7718012332916260e-01 6.4196860790252686e-01</leafValues></_>
        <_>
          <internalNodes>
            0 -1 7 -2.1895520389080048e-01</internalNodes>
          <leafValues>
            9.0857875347137451e-01 -6.4646816253662109e-01</leafValues></_></weakClassifiers></_>
    <!-- stage 2 -->
    <_>
      <maxWeakCount>2</maxWeakCount>
      <stageThreshold>-4.0436738729476929e-01</stageThreshold>
      <weakClassifiers>
        <_>
          <internalNodes>
            0 -1 22 1.0427195578813553e-02</internalNodes>
          <leafValues>
            -8.6676758527755737e-01 6.4558404684066772e-01</leafValues></_>
        <_>
          <internalNodes>
            0 -1 2 -3.5294294357299805e-01</internalNodes>
          <leafValues>
            4.6240019798278809e-01 -9.9235910177230835e-01</leafValues></_></weakClassifiers></_>
    <!-- stage 3 -->
    <_>
      <maxWeakCount>3</maxWeakCount>
      <stageThreshold>1.7330515384674072e-01</stageThreshold>
      <weakClassifiers>
        <_>
          <internalNodes>
            0 -1 0 1.6991778975352645e-03</internalNodes>
          <leafValues>
            -9.9173551797866821e-01 4.4971537590026855e-01</leafValues></_>
        <_>
          <internalNodes>
            0 -1 16 -4.4039161875844002e-03</internalNodes>
          <leafValues>
            -9.5694816112518311e-01 3.8813766837120056e-01</leafValues></_>
        <_>
          <internalNodes>
            0 -1 11 -1.6951416432857513e-01</internalNodes>
          <leafValues>
            7.7690303325653076e-01 -5.7410162687301636e-01</leafValues></_></weakClassifiers></_>
    <!-- stage 4 -->
    <_>
      <maxWeakCount>4</maxWeakCount>
      <stageThreshold>-9.8012554645538330e-01</stageThreshold>
      <weakClassifiers>
        <_>
          <internalNodes>
            0 -1 20 -8.4219470620155334e-02</internalNodes>
          <leafValues>
            6.2932062149047852e-01 -7.6394850015640259e-01</leafValues></_>
        <_>
          <internalNodes>
            0 -1 1 1.0131735354661942e-02</internalNodes>
          <leafValues>
            3.9504703879356384e-01 -9.9690997600555420e-01</leafValues></_>
        <_>
          <internalNodes>
            0 -1 4 2.2662691771984100e-03</internalNodes>
          <leafValues>
            -9.3051636219024658e-01 3.9333009719848633e-01</leafValues></_>
        <_>
          <internalNodes>
            0 -1 26 -4.2673321440815926e-03</internalNodes>
          <leafValues>
            3.1929224729537964e-01 -9.4547122716903687e-01</leafValues></_></weakClassifiers></_>
    <!-- stage 5 -->
    <_>
      <maxWeakCount>3</maxWeakCount>
      <stageThreshold>-1.5611711144447327e-01</stageThreshold>
      <weakClassifiers>
        <_>
          <internalNodes>
            0 -1 19 -4.8659625463187695e-03</internalNodes>
          <leafValues>
            5.4273027181625366e-01 -7.7708005905151367e-01</leafValues></_>
        <_>
          <internalNodes>
            0 -1 10 1.4233891852200031e-03</internalNodes>
          <leafValues>
            3.8155809044837952e-01 -9.9523651599884033e-01</leafValues></_>
        <_>
          <internalNodes>
            0 -1 3 5.5100116878747940e-04</internalNodes>
          <leafValues>
            2.9638907313346863e-01 -9.8923975229263306e-01</leafValues></_></weakClassifiers></_>
    <!-- stage 6 -->
    <_>
      <maxWeakCount>5</maxWeakCount>
      <stageThreshold>-1.3188344240188599e+00</stageThreshold>
      <weakClassifiers>
        <_>
          <internalNodes>
            0 -1 6 6.2180361710488796e-03</internalNodes>
          <leafValues>
            -8.3704972267150879e-01 5.0471204519271851e-01</leafValues></_>
        <_>
          <internalNodes>
            0 -1 5 -2.7125334739685059e-01</internalNodes>
          <leafValues>
            7.3936110734939575e-01 -5.7614505290985107e-01</leafValues></_>
        <_>
          <internalNodes>
            0 -1 15 2.8365572914481163e-02</internalNodes>
          <leafValues>
            -7.8820252418518066e-01 5.2206319570541382e-01</leafValues></_>
        <_>
          <internalNodes>
            0 -1 13 -8.5093139205127954e-04</internalNodes>
          <leafValues>
            -9.9299180507659912e-01 4.2865735292434692e-01</leafValues></_>
        <_>
          <internalNodes>
            0 -1 17 4.5612584799528122e-03</internalNodes>
          <leafValues>
            -6.9530767202377319e-01 4.5390552282333374e-01</leafValues></_></weakClassifiers></_>
    <!-- stage 7 -->
    <_>
      <maxWeakCount>3</maxWeakCount>
      <stageThreshold>-2.3003436625003815e-01</stageThreshold>
      <weakClassifiers>
        <_>
          <internalNodes>
            0 -1 8 -1.2783382553607225e-03</internalNodes>
          <leafValues>
            -9.8403650522232056e-01 3.8699409365653992e-01</leafValues></_>
        <_>
          <internalNodes>
            0 -1 25 -1.0405408684164286e-03</internalNodes>
          <leafValues>
            4.0140470862388611e-01 -8.7713825702667236e-01</leafValues></_>
        <_>
          <internalNodes>
            0 -1 23 3.6341929808259010e-04</internalNodes>
          <leafValues>
            -9.7527247667312622e-01 3.5259741544723511e-01</leafValues></_></weakClassifiers></_>
    <!-- stage 8 -->
    <_>
      <maxWeakCount>3</maxWeakCount>
      <stageThreshold>-1.8162684142589569e-01</stageThreshold>
      <weakClassifiers>
        <_>
          <internalNodes>
            0 -1 24 -3.5672698868438601e-04</internalNodes>
          <leafValues>
            4.4011408090591431e-01 -9.6502059698104858e-01</leafValues></_>
        <_>
          <internalNodes>
            0 -1 9 2.2245268337428570e-03</internalNodes>
          <leafValues>
            3.5115721821784973e-01 -9.8545873165130615e-01</leafValues></_>
        <_>
          <internalNodes>
            0 -1 12 3.5917037166655064e-04</internalNodes>
          <leafValues>
            -9.7289812564849854e-01 4.8224097490310669e-01</leafValues></_></weakClassifiers></_></stages>
  <features>
    <_>
      <rects>
        <_>
          0 0 6 5 -1.</_>
        <_>
          3 0 3 5 2.</_></rects>
      <tilted>0</tilted></_>
    <_>
      <rects>
        <_>
          0 0 6 15 -1.</_>
        <_>
          3 0 3 15 2.</_></rects>
      <tilted>0</tilted></_>
    <_>
      <rects>
        <_>
          0 0 23 24 -1.</_>
        <_>
          0 12 23 12 2.</_></rects>
      <tilted>0</tilted></_>
    <_>
      <rects>
        <_>
          0 1 1 12 -1.</_>
        <_>
          0 7 1 6 2.</_></rects>
      <tilted>0</tilted></_>
    <_>
      <rects>
        <_>
          0 5 6 7 -1.</_>
        <_>
          3 5 3 7 2.</_></rects>
      <tilted>0</tilted></_>
    <_>
      <rects>
        <_>
          0 11 18 13 -1.</_>
        <_>
          9 11 9 13 2.</_></rects>
      <tilted>0</tilted></_>
    <_>
      <rects>
        <_>
          0 12 12 6 -1.</_>
        <_>
          0 12 6 3 2.</_>
        <_>
          6 15 6 3 2.</_></rects>
      <tilted>0</tilted></_>
    <_>
      <rects>
        <_>
          0 14 18 10 -1.</_>
        <_>
          9 14 9 10 2.</_></rects>
      <tilted>0</tilted></_>
    <_>
      <rects>
        <_>
          0 17 8 6 -1.</_>
        <_>
          0 17 4 3 2.</_>
        <_>
          4 20 4 3 2.</_></rects>
      <tilted>0</tilted></_>
    <_>
      <rects>
        <_>
          0 22 8 2 -1.</_>
        <_>
          4 22 4 2 2.</_></rects>
      <tilted>0</tilted></_>
    <_>
      <rects>
        <_>
          1 0 6 4 -1.</_>
        <_>
          3 0 2 4 3.</_></rects>
      <tilted>0</tilted></_>
    <_>
      <rects>
        <_>
          2 11 21 5 -1.</_>
        <_>
          9 11 7 5 3.</_></rects>
      <tilted>0</tilted></_>
    <_>
      <rects>
        <_>
          3 19 4 5 -1.</_>
        <_>
          5 19 2 5 2.</_></rects>
      <tilted>0</tilted></_>
    <_>
      <rects>
        <_>
          4 0 1 21 -1.</_>
        <_>
          4 7 1 7 3.</_></rects>
      <tilted>0</tilted></_>
    <_>
      <rects>
        <_>
          5 2 18 12 -1.</_>
        <_>
          5 6 18 4 3.</_></rects>
      <tilted>0</tilted></_>
    <_>
      <rects>
        <_>
          6 2 16 3 -1.</_>
        <_>
          14 2 8 3 2.</_></rects>
      <tilted>0</tilted></_>
    <_>
      <rects>
        <_>
          7 7 2 12 -1.</_>
        <_>
          7 13 2 6 2.</_></rects>
      <tilted>0</tilted></_>
    <_>
      <rects>
        <_>
          7 9 6 3 -1.</_>
        <_>
          9 9 2 3 3.</_></rects>
      <tilted>0</tilted></_>
    <_>
      <rects>
        <_>
          8 3 14 4 -1.</_>
        <_>
          15 3 7 4 2.</_></rects>
      <tilted>0</tilted></_>
    <_>
      <rects>
        <_>
          10 23 9 1 -1.</_>
        <_>
          13 23 3 1 3.</_></rects>
      <tilted>0</tilted></_>
    <_>
      <rects>
        <_>
          13 6 4 18 -1.</_>
        <_>
          13 15 4 9 2.</_></rects>
      <tilted>0</tilted></_>
    <_>
      <rects>
        <_>
          13 9 8 15 -1.</_>
        <_>
          17 9 4 15 2.</_></rects>
      <tilted>0</tilted></_>
    <_>
      <rects>
        <_>
          14 22 8 2 -1.</_>
        <_>
          18 22 4 2 2.</_></rects>
      <tilted>0</tilted></_>
    <_>
      <rects>
        <_>
          17 6 2 8 -1.</_>
        <_>
          18 6 1 8 2.</_></rects>
      <tilted>0</tilted></_>
    <_>
      <rects>
        <_>
          20 12 1 6 -1.</_>
        <_>
          20 15 1 3 2.</_></rects>
      <tilted>0</tilted></_>
    <_>
      <rects>
        <_>
          20 20 3 4 -1.</_>
        <_>
          20 22 3 2 2.</_></rects>
      <tilted>0</tilted></_>
    <_>
      <rects>
        <_>
          21 11 3 10 -1.</_>
        <_>
          21 16 3 5 2.</_></rects>
      <tilted>0</tilted></_></features></cascade>
</opencv_storage>
